{"LearningCoefficient":0.5,"Biases":[-0.849633,1.574954,1.404354,-0.405018,1.477746],"Weights":[[-1.159198,1.890334,1.423859,0.917571,0.898151],[0.585473,0.7049,1.242767,1.641432,1.442216],[-1.327209,1.067225,0.542938,1.83699,1.213966],[1.2582,1.612549,0.260877,-1.895546,-0.093053],[-1.145564,1.304544,-0.635767,1.418326,-1.916911],[1.415132,-0.980602,1.773306,-0.017346,-0.147749],[0.095402,1.189518,-0.788324,-1.03512,-0.701769],[-0.936631,1.021352,-0.138544,-1.377733,-0.030395],[0.679913,-1.734319,1.868704,-1.12948,-1.318675],[1.784932,-1.757805,-0.67663,0.877589,0.941604],[1.30917,-0.535722,-1.570472,0.436865,-0.644548],[1.121908,0.313981,-0.544564,-0.148752,-0.12365],[-0.461016,0.957889,-0.904027,1.9969,0.604862],[-1.639391,-1.214679,-1.036927,-1.042086,1.703003],[1.465289,-0.898842,0.780701,-1.335448,1.799043],[1.629099,0.061798,-1.98623,-1.973122,1.915555],[-0.196149,-0.885293,-1.470004,-1.020796,-0.59834],[-1.147154,-0.508843,-0.302768,0.585874,1.291073],[-1.053449,-0.713319,0.128488,1.272537,1.910433],[-1.126054,-1.048683,-1.222546,-1.919129,1.043115],[0.169478,-0.945204,0.589171,0.217832,0.380969],[1.615847,-1.236018,0.216138,1.025289,-0.003279],[0.712467,1.972313,-0.893723,0.876617,0.754263],[-0.690347,-0.654756,-0.658518,-0.021684,-0.71624],[-0.356755,-1.216893,0.852338,-0.746388,-0.899599],[0.884939,-1.265754,1.762639,-1.625074,1.560581],[-1.647731,-0.020681,-0.994917,-0.051464,-0.582252],[-0.221325,-0.260548,-0.473034,0.943695,-0.900167],[0.766344,-1.657901,-1.604041,-1.325668,-0.87476],[0.806661,0.38998,-1.367832,0.438148,-1.927069],[-1.418956,-0.106324,-0.238058,1.463779,-1.737798],[-0.866053,0.767526,1.194199,1.505327,1.805261],[-0.798337,-1.186345,-0.402032,-1.465082,-0.160022],[-0.663265,0.888963,0.805231,1.165452,-0.278948],[-1.991812,1.906976,-0.184505,1.988417,-0.99286],[-0.373345,0.209472,-1.462701,0.272696,-0.236621],[1.719548,-0.4658,-0.910732,0.383127,1.514094],[-0.551669,0.564707,-0.416591,1.636603,1.189344],[-0.910085,-1.034664,-1.27127,0.984298,-1.189253],[1.452489,-1.155445,0.810087,1.100026,1.030835],[0.110272,1.590586,-1.034607,1.889706,-1.549628],[1.628972,0.729932,0.810094,0.282584,-0.488025],[-0.543125,1.835269,0.233119,-1.097296,-1.320395],[-0.817799,-0.453945,0.086862,0.907136,1.30135],[-1.013434,-0.282467,1.965099,-1.59578,1.723058],[1.437401,0.795334,0.458866,0.994001,-0.110984],[0.07825,-1.776975,-0.07618,0.066072,1.845917],[-1.292246,-0.877853,1.014066,-1.777958,-1.758741],[1.244619,1.298375,1.970213,-1.186586,1.324466],[-0.126405,-0.401673,-0.732381,-1.852804,-0.529234],[0.101395,0.064964,-0.219612,0.697693,-0.673029],[1.97446,-1.124465,1.263422,-0.009028,-0.571209],[0.504953,-0.586488,0.022709,-0.745263,-1.344056],[-1.718157,-1.331464,0.262508,-1.53886,-1.080274],[0.980889,0.520158,-1.184817,1.37715,-0.903223],[-0.775045,1.126352,-0.79228,1.892283,-1.098571],[1.873006,0.732588,0.13649,-1.235186,-1.312047],[1.363138,-0.278019,-0.798544,-0.141326,-0.069793],[-0.385045,0.829442,1.40854,0.850842,-1.193454],[-0.030503,0.570298,-0.398406,1.043401,-1.477493],[1.062863,1.04008,0.768222,-1.965882,-1.565497],[-1.683273,-0.549934,1.68471,0.021184,-1.801602],[0.297025,0.679253,-0.534503,1.947936,-1.155635],[1.873252,-0.124298,1.236536,0.432373,-1.391606],[1.203889,0.348519,1.561428,1.41381,0.679402],[0.175223,0.696752,-0.764671,0.931538,-0.449809],[-0.079756,-0.499674,1.857468,-0.68367,-1.963628],[-1.797751,-1.931074,0.290742,-1.168552,-1.11619],[-1.647579,-1.121655,1.147578,-1.030503,0.695863],[-0.161365,0.891686,0.243402,0.391856,0.035664],[1.909551,-1.472403,0.924502,-0.356249,-1.59854],[-1.644481,0.55,0.946587,-0.657399,0.212317],[1.762931,-1.474179,-1.031498,1.601576,0.480326],[-0.505938,-1.557875,1.318401,-1.827489,-1.120402],[0.763674,-0.639268,1.81206,-1.808835,0.592744],[0.540506,0.324864,1.779077,1.935248,-1.131006],[0.158971,-1.071287,1.98302,0.122584,-0.682883],[-0.469734,0.426258,1.019415,1.969481,1.452912],[-1.676913,1.627712,-0.623617,-0.425904,-0.439298],[0.205844,-0.012226,-1.606529,0.25961,1.211384],[-1.193311,-1.48878,-0.161181,0.308854,1.714664],[1.644515,-1.142829,-0.008982,-0.273506,-0.823511],[0.534056,0.441077,-0.443246,0.130281,-0.224633],[-1.107251,0.743772,1.12834,-1.472865,1.654474],[-1.294735,-1.674984,0.851779,1.740454,0.745961],[-1.393417,-0.981859,0.49852,-0.527194,0.83341],[0.628994,-0.645987,-0.828511,0.25059,1.149318],[-1.08018,-1.854881,1.33546,-1.926221,-1.079748],[0.355847,-1.631195,-0.009952,1.788302,-1.375725],[0.783232,-1.219376,-1.392226,-1.903865,-1.894289],[-0.246351,1.476884,0.400809,-0.492119,-0.924574],[-1.64359,1.812219,1.887812,-1.475547,-0.416112],[1.833376,1.735266,0.17487,-1.214239,0.382798],[1.120419,0.395038,1.127135,1.940897,-1.711761],[-1.610374,-0.195525,-1.958136,1.065909,0.596332],[-0.206455,0.14052,-0.719317,-0.131478,-1.748026],[-0.668053,-1.949321,-0.655403,0.334648,-1.33239],[-0.416377,-0.040433,0.996583,0.470332,-1.928789],[-0.021688,1.197536,0.525434,1.493326,-1.378052],[0.811343,1.02078,0.72977,-0.527318,0.172868],[-0.482843,-0.704992,0.601398,-0.322328,-0.147356],[-0.123998,-1.845901,1.633078,-0.765376,0.962107],[-1.644667,-1.756198,1.866488,1.252545,-0.454604],[-0.594016,-1.593311,-0.273189,0.421558,-0.711198],[-0.035955,-0.92927,0.343117,0.503445,-0.930695],[-0.254124,1.514964,0.833802,-0.644908,1.114654],[-1.788471,-1.650285,0.29492,0.389396,0.948465],[-0.989109,-1.028613,0.704309,-0.917774,1.776345],[-0.481831,1.307804,0.450448,-1.730025,0.326982],[-1.559617,-1.804706,-0.963894,1.441902,-1.772218],[1.065984,0.197639,-0.775299,-0.230302,1.584312],[0.34274,-1.69367,1.117074,-1.204667,-0.764959],[1.040051,0.094269,1.825073,-1.715422,-1.630495],[1.409111,-1.158332,1.015069,-1.408768,-0.404838],[-0.837192,0.059078,1.762775,-1.265453,-1.192156],[1.418348,0.182908,-1.222795,0.307623,1.258014],[-0.217329,1.008989,0.127956,1.890903,0.42303],[-0.595724,1.935481,0.337158,1.4208,-0.810109],[1.167986,-0.449314,-1.615243,0.691918,-0.137567],[0.597305,-0.669622,-0.937092,-0.058996,1.845991],[1.546229,-0.657261,-1.93616,-1.319052,0.400873],[-0.999575,-0.644793,-1.477992,-0.757449,1.11612],[-0.153598,1.700121,-1.699306,-0.956854,-1.740465],[-0.430811,-1.902278,0.539804,-1.126637,0.590152],[-1.915014,1.414802,1.842593,-1.116025,-1.039761],[1.553141,-1.284622,1.03669,-0.880702,0.817572],[-1.477857,0.814735,-1.228283,-1.44316,1.829519],[-1.357487,0.130783,-0.158634,1.660679,0.192087],[-0.895564,0.63765,1.276536,-0.893397,0.283266],[-1.029871,1.220212,0.531377,0.322643,0.340769],[-0.791441,0.274185,0.43448,-0.3994,-1.798615],[-1.424652,0.969146,-1.013563,1.652253,-0.754094],[1.551954,1.228721,-1.506019,-1.523845,0.830964],[-0.488257,-1.393069,0.646613,-1.898586,1.387834],[-1.311312,-1.307234,-0.207927,-1.418062,-0.64126],[0.930687,-1.642878,0.205741,-0.92577,-1.247443],[1.289182,-1.38663,0.12453,0.473949,1.631093],[-0.871928,0.034388,1.829943,1.708723,-1.513434],[0.928704,-0.326958,-1.214777,0.02369,0.585169],[0.959389,-1.189948,-1.982022,0.385362,1.631307],[-1.604946,-1.331574,-1.796401,1.083411,1.884945],[-0.381896,-1.617374,0.467181,-0.831636,1.372972],[1.401651,-1.162685,-1.114987,1.803804,0.59327],[-0.084536,-1.826489,-1.046058,-1.6536,-1.603507],[1.717248,0.582985,1.383074,0.326436,-1.478601],[1.41091,1.170553,1.283735,-1.287452,1.840385],[-0.683641,-0.28205,-1.93726,-1.760125,-0.785617],[-1.575735,0.893598,1.159801,-1.805471,-1.212364],[-0.042389,-1.66404,1.36436,1.20635,1.480396],[-1.028722,1.621567,1.26466,-1.241715,1.338319],[-1.989126,1.13153,1.152727,-0.022381,-0.171056],[1.927671,-1.884802,1.007439,0.913848,1.477719],[0.415637,-1.591119,0.611826,1.778413,0.208778],[1.381007,-0.132842,-0.537473,-0.447677,-1.224043],[1.265115,-0.321958,0.66593,-1.208266,1.771994],[-1.483268,1.939801,0.07939,-1.564879,0.736524],[-1.970401,-1.546023,1.332384,-1.808522,0.702572],[0.786144,-1.85392,-0.673316,0.379183,0.955245],[-0.679001,-1.008113,-0.115782,-0.462417,-1.671437],[0.410903,-1.644648,1.306427,-0.615852,0.251733],[-0.776267,-1.299771,0.062084,-1.201748,1.285135],[1.569016,0.218932,-1.546446,0.728716,-1.243622],[1.906455,0.333737,1.427772,1.975623,-0.50692],[-1.451959,-1.912408,1.919071,-0.052668,1.986212],[1.231824,-0.07889,0.601625,-0.158698,-1.973603],[0.490636,1.228493,-1.761736,0.117445,0.338406],[0.790786,-0.922391,0.623093,-1.680822,0.404077],[-0.471692,-0.512662,-0.821541,-1.816837,-1.018329],[0.720423,-1.851098,-0.777005,-1.990707,-1.763579],[0.23212,-0.298044,-0.442966,1.660317,-1.944713],[-1.870834,-0.430461,0.652675,1.833674,1.626921],[-1.345401,-1.025398,0.298014,-1.81782,-0.063535],[0.475572,0.262439,-0.448065,-0.60289,0.604722],[-1.791403,-1.259366,-1.633221,-1.693444,0.231126],[0.202251,-1.338048,-1.140692,0.857593,1.961046],[-0.071875,-1.039888,-0.403341,1.512584,1.027901],[-0.401226,-1.482108,1.636995,-0.561253,-1.47715],[1.930938,1.52661,1.346751,-1.303254,1.863042],[-0.148059,-0.485263,1.15673,0.546926,0.068753],[-1.325924,-1.755751,-1.441142,-1.828574,-0.880146],[0.236783,0.997428,0.97395,-1.120578,-0.396811],[-1.902122,1.921137,-0.388084,-1.637689,1.041883],[0.684902,-0.205177,0.477006,-1.545671,0.711691],[-1.866842,1.016083,-1.988123,-1.651682,0.944947],[-1.040746,-1.911318,1.37865,-1.654976,-1.488175],[-0.719112,0.158986,1.427042,0.686752,-1.276334],[0.159711,0.560265,0.374611,1.87384,1.037128],[-1.829054,-0.638436,1.031454,0.923833,0.055007],[0.246629,0.92889,1.980683,1.309681,1.61584],[-1.828044,-1.247035,1.712683,-1.853182,0.622216],[0.901088,1.903144,0.873357,-1.117248,0.049985],[-1.496962,-1.532711,-1.202154,-1.905233,-1.324152],[1.807073,-0.957499,-0.054275,0.17114,-1.841998],[-1.482199,-0.682309,-0.521205,-1.360458,-1.666564],[-0.264344,-1.890177,-0.044106,-0.41289,-1.653828],[-1.173962,0.449495,1.750045,-1.645306,1.128567],[-0.288351,0.048889,1.039409,-0.807259,-0.120107],[0.85361,-1.250278,-1.034058,-0.143529,0.607058],[0.68364,0.252401,0.352317,0.505098,-1.629904],[-0.773388,1.354492,1.14481,-1.791009,0.182992],[-1.379876,0.092945,-1.339359,-1.606629,-0.563693],[1.788051,-1.769389,0.88428,-1.943288,-1.767288],[-0.296158,0.744696,-0.063194,-1.814764,-1.448785],[1.725491,0.634004,-0.192674,1.546033,1.425109],[-1.157888,0.052028,-1.388015,-1.075389,1.711398],[1.356275,0.156928,-1.145287,-0.204562,1.89248],[-0.547901,-0.14724,-0.544497,-0.483262,-1.127004],[0.20704,1.668247,0.245047,1.471857,1.977652],[-0.821244,-0.794794,-1.396781,0.69473,-1.185089],[-0.66301,-1.282071,-0.930729,-0.72085,-1.255907],[0.917958,1.421909,0.442395,0.996373,0.213674],[-1.901339,-1.072633,1.985633,1.494732,0.83953],[-1.065797,0.631344,0.169954,1.832256,-1.113509],[-1.353077,-1.252362,-0.674641,-0.633843,1.208709],[-1.825879,-0.642077,-1.667523,-1.495275,-1.351456],[-0.874145,-1.220908,-1.549832,-1.564059,-1.756748],[-1.115885,-1.575891,-0.023452,0.274387,0.044687],[1.773296,1.317654,1.415895,1.627305,0.548133],[1.588786,1.99891,-1.459579,-0.397692,1.474387],[-0.049064,1.762123,1.174583,1.154549,1.302731],[-1.669075,-1.331772,-0.136348,0.243606,1.301278],[0.61984,1.716045,1.591639,-0.604655,-1.65093],[1.281679,0.558449,-0.802224,-1.126517,-0.634169],[0.548468,1.395937,-0.489687,1.862476,-0.385795],[1.331032,-0.201188,0.683678,0.777564,0.005302],[1.626128,-0.897751,-0.145171,1.738908,0.951073],[-1.152474,1.932101,-1.647712,0.011041,-0.221538],[-0.042228,-1.055252,-1.92686,-1.242432,0.271287],[0.472941,-1.369189,0.410885,0.719447,-0.115046],[-0.623787,0.212458,-0.890737,0.502899,-1.167521],[-1.783525,0.911223,0.55725,0.319843,-0.851992],[0.745164,1.768169,0.671054,1.582276,-0.084208],[-0.752702,-0.725791,-1.005566,0.191648,1.492946],[-1.374671,0.160245,-1.98808,0.337935,1.885761],[-1.946047,0.151304,1.898217,1.778056,1.683547],[0.448732,0.766817,-1.91033,-1.177289,-0.629523],[0.394036,-0.823559,1.675111,-1.822925,0.490669],[0.959411,1.160819,-1.330319,-1.091704,1.286582],[1.291046,-1.035946,1.399892,1.423707,1.233549],[-0.397021,-0.068246,0.523937,0.549586,-1.380654],[1.828789,-1.693773,-0.028461,-0.829985,1.85067],[1.952671,0.892018,-1.870435,-1.598017,1.059477],[0.99219,-1.843642,0.428236,-1.770897,-0.759904],[-1.090362,0.21096,0.911412,0.030531,0.871746],[-0.746003,-0.668944,-0.729712,-0.849556,-1.591458],[0.802427,0.975777,0.887724,-0.611979,1.210455],[1.568835,-0.164054,0.627892,-1.73749,1.789357],[1.16015,-1.705137,-1.379634,-1.195017,-1.050707],[-1.65632,1.959767,-0.853682,-1.865183,1.684892],[-1.390199,1.330731,-0.494274,-0.848832,-1.89708],[1.941923,0.025386,-0.226503,0.080307,-0.91612],[-0.061647,0.731235,1.623514,-0.434564,1.33176],[1.264824,-1.249188,-1.574479,-1.745837,1.132671],[-1.267297,0.490278,1.177734,1.350548,-0.932635],[-1.104313,0.686264,-0.718842,-0.034615,0.881714],[0.000284,0.3769,-0.930998,0.998025,-0.912763],[-1.493629,-0.327837,-0.313496,1.183229,0.866881],[1.155374,1.348759,-1.573507,-1.67724,0.93701],[-1.605541,-1.164808,1.123648,-1.231531,-0.580193],[-0.784016,-1.050221,0.757156,-0.814297,-1.239675],[0.508749,0.224828,-1.497575,1.784397,0.114017],[1.494327,-1.091988,-0.617637,-1.24083,0.60171],[1.734099,1.037436,1.834161,-1.24759,0.092697],[1.802543,0.992748,1.493956,-1.808169,1.982432],[-0.879485,-0.193294,0.512021,0.959307,1.596085],[-1.827206,1.65374,1.771341,1.414097,-1.702118],[0.851363,1.653158,0.991198,-0.696917,1.346585],[-1.691126,-1.528901,0.158034,-0.505679,-0.99927],[-1.40703,0.596334,-0.572857,-0.411899,1.525163],[-0.274611,0.591106,-1.757192,1.682015,1.278067],[0.731819,1.602651,-1.224943,-1.741134,-0.247417],[-0.075296,-0.73671,-0.693133,-0.633909,0.758105],[-1.51775,0.3536,-1.983997,-1.796401,1.314584],[-0.014193,0.067157,0.016484,1.052722,0.855042],[0.122148,1.455897,-0.796955,-0.015465,1.452061],[-1.621746,-0.22379,-0.265912,-0.158377,-1.758198],[1.62765,1.559687,-0.836596,-0.833758,1.108974],[0.372041,-1.652512,0.286364,0.842951,0.494085],[-0.70553,0.064881,-1.759975,0.712032,-0.794337],[-1.471395,0.823035,1.795953,-0.610456,0.794847],[-1.942708,1.266304,1.226938,1.476398,1.161716],[-0.312624,1.637238,1.731923,-0.793942,-1.170831],[-0.385908,-1.015019,0.926823,-1.377249,0.586394],[-0.13686,-0.69992,-1.094841,-0.431721,-0.217966],[-0.56571,-1.812928,1.335766,-1.577409,1.748599],[0.278122,-1.820012,0.933737,-1.245593,-0.183752],[1.48034,1.017357,0.245533,1.328113,0.783121],[-1.485405,0.783931,-0.183299,0.8411,0.425581],[1.729642,1.473981,0.730762,-1.62745,-0.995953],[0.053669,1.774404,0.829214,-1.21997,0.59631],[-0.057639,-0.905346,0.403165,-0.360519,0.503596],[1.238662,-0.172318,1.248618,1.854315,1.553659],[0.564952,0.325626,-0.453968,-1.860173,-0.133225],[0.075062,-1.985724,-1.357263,0.238003,0.473224],[1.09423,1.706926,0.021512,0.765189,0.505328],[-1.665538,1.398215,-1.410825,-1.589156,-0.75104],[-1.781428,1.854582,-1.704596,1.649573,-1.033221],[1.189647,-0.83639,0.93428,-1.962728,-0.742336],[1.789124,-1.595746,-1.600609,1.071224,1.275661],[-0.918797,-0.322684,-0.501054,-0.263653,-1.88934],[1.951064,1.322619,1.896526,-1.915062,1.86387],[1.259962,-0.635153,-1.530143,0.768189,0.788627],[0.56718,-0.301472,1.193223,1.216881,-0.575869],[0.618291,-0.631339,-1.09649,-1.547198,-1.593174],[-0.122018,1.72808,-1.269331,-1.107698,0.350337],[0.017219,-1.237904,-1.53337,-1.285783,0.325776],[-0.543897,-1.622364,1.607511,-0.638163,-1.982823],[-0.720983,0.683655,0.409037,-0.798559,-1.722371],[0.610556,1.034381,-0.025311,-0.633986,-0.384696],[-1.482568,-1.089946,1.54707,-1.876237,0.639912],[0.372634,0.817213,1.905599,-0.168217,-0.021737],[0.13433,-0.675325,1.400141,-1.659722,-1.627204],[-0.139096,-0.716122,-1.813532,-0.389272,-0.268653],[1.865853,0.012158,1.327695,1.378925,0.62496],[-0.841308,-0.316525,1.530218,-0.290694,-0.401391],[-1.178627,0.58759,-1.229497,0.578339,-0.715151],[-0.119765,1.923031,0.455541,-1.863581,-1.984685],[-0.129041,-0.262643,0.929002,1.184131,-1.689337],[0.368253,0.805676,-1.84181,1.76924,-1.766167],[0.842393,-0.373281,1.578284,0.2049,-0.220163],[-1.307545,-1.363618,-0.474191,-1.914016,-0.485239],[0.336768,-1.130773,-0.825503,0.461983,-1.078997],[-1.420769,-1.002882,1.427272,-0.878228,1.996683],[0.539301,0.82193,0.597928,-1.191929,-1.071147],[1.783028,-0.503548,-0.160358,0.042533,-1.225529],[1.493157,-0.22503,-0.473561,-1.595449,0.198924],[1.359752,0.937664,1.760835,-0.773736,-1.10867],[0.407188,0.339324,1.373266,-0.034405,-1.158641],[0.891577,0.360231,1.994972,-1.712466,-1.650286],[-0.212314,-1.942318,-1.386131,-0.42631,0.203101],[-1.840318,-0.078372,-0.561316,0.192049,1.275022],[-1.561997,0.396077,0.229124,-0.87103,-0.14869],[0.582918,1.943234,-0.113027,1.771727,1.218423],[-1.786732,-1.612435,0.741079,-1.024315,-0.904997],[-1.422459,1.500416,1.899427,-0.695394,0.930977],[-1.202669,-0.098543,0.75708,-1.291791,-1.626911],[1.120196,-0.061291,-1.4613,-0.010823,1.405038],[0.995801,1.61632,0.023313,-1.830052,0.179569],[1.985157,-0.428,-1.82551,-1.324023,1.431697],[1.417071,1.424976,0.869136,1.708375,-0.577177],[-1.177981,1.802352,1.326226,1.39257,-0.200928],[0.201323,-1.666298,1.836496,0.126673,0.505492],[-0.095961,1.74955,1.842012,-0.524914,-1.189722],[1.21221,0.563927,1.183692,-1.751213,0.364135],[1.681035,-1.042808,0.923616,0.948247,-1.381953],[1.808031,1.769979,1.003025,-0.700796,0.130799],[-0.622241,-1.456196,1.062149,0.243587,-0.177688],[0.699099,-1.686531,0.218338,-1.239098,1.241814],[-1.08363,0.3308,-0.887481,-1.471303,-1.125385],[0.272857,-0.880664,-0.748991,-1.81315,-0.77952],[0.454226,1.475184,0.133635,-1.725575,-0.766355],[0.347613,0.117225,-0.633598,-1.534558,-1.343884],[-1.178606,0.357934,0.77609,-1.731968,-0.976169],[-1.053269,0.777535,-1.178893,-1.133676,-0.504175],[-1.611252,-0.959067,1.973137,-0.349637,0.595899],[-0.385704,0.453393,0.722029,-0.377045,0.942867],[0.68073,-1.632271,-0.957415,-0.353583,0.791944],[-1.972121,0.876598,-1.404705,0.40881,-1.504722],[0.835263,1.872208,1.063868,0.410269,1.632355],[0.384825,-0.04689,1.20423,-1.51225,-1.848588],[0.657467,-0.175568,-1.294205,1.487953,-0.565554],[1.048915,0.038311,-1.765756,1.396242,1.175817],[0.38744,-1.676576,0.414065,-1.086093,1.927915],[-1.17713,0.976699,-0.639181,1.792323,1.412203],[-1.64225,0.988425,0.108386,-0.068286,1.36489],[-0.065368,-1.578864,-0.323525,-1.297187,-1.873047],[1.551412,-0.61856,-0.486832,-1.43145,-0.845627],[-0.352364,-1.103687,-0.55461,-1.364956,-1.363656],[1.288312,0.511742,1.428267,0.07432,1.693983],[-1.638639,1.782018,-1.226862,-0.998903,-0.77448],[-0.298822,-1.35112,-1.768197,-1.410838,-0.12019],[0.884435,-1.693289,-1.567772,1.966471,-0.164254],[-0.114198,-1.834644,0.754512,0.508154,-1.121034],[0.951181,1.3807,-0.710946,-1.939135,0.81101],[0.020373,-0.175633,-1.747942,0.812331,1.980765],[0.491132,-1.69732,-0.310687,-0.040689,1.009268],[-1.567271,-0.880324,-0.667515,-1.013103,-1.889274],[-0.632979,0.433191,-1.75642,-1.127015,-0.367452],[0.858267,-0.135262,1.674312,-0.140176,-1.689194],[1.974997,-0.273527,0.836617,-1.25667,0.643672],[0.115398,-0.768834,0.46429,0.160965,-1.623388],[-1.339347,0.624195,-0.457503,-1.534638,-0.350484],[-0.509182,-1.991476,0.260748,-0.563102,1.966745],[-1.38128,-0.759105,0.743963,-1.899316,1.129234],[1.33346,-1.417503,0.480234,-0.700735,-1.030544],[-0.187931,1.804403,-1.927718,-0.273393,0.618906],[1.616608,-1.961857,1.453034,-1.139061,-1.172521],[-0.363813,-0.834301,-0.934134,0.905404,-0.277401],[1.824519,1.346632,0.767941,1.325321,0.499104],[0.963245,-0.952977,-0.822601,1.681651,1.98811],[0.1166,-0.466272,-0.285505,1.061791,-0.418855],[1.092316,1.062111,1.943405,1.580367,0.909761],[-1.839462,1.744112,0.959445,-0.240321,0.547214],[-0.399668,1.61889,-1.02974,-1.811773,1.280285],[-1.240396,-0.399456,0.163341,-1.779578,1.988378],[-0.226896,-0.235959,1.091982,1.996328,0.623255],[1.813883,-1.989722,-0.577569,-0.787235,0.577577],[-0.918831,-1.227149,0.481193,-0.317237,-0.601925],[0.85446,1.575502,-0.924694,0.317073,0.999245],[-0.253597,-1.463944,-0.752859,0.245435,-1.508905],[-1.743382,0.388539,-0.510143,-1.269347,-1.023574],[1.730123,1.647491,-0.38324,-0.391457,-0.814032],[1.410787,-0.198273,0.79007,0.686582,1.547831],[-1.444991,0.548782,-1.660619,1.5276,1.649095],[-1.428321,-1.529544,-0.980794,1.597688,1.34067],[1.569792,1.168473,-0.298593,-1.692046,1.397899],[-1.538189,-0.048131,0.611891,-0.042711,1.77715],[-0.129787,0.977233,-0.512965,-1.792833,0.212821],[0.926358,-1.046831,-1.430951,0.053993,-0.48494],[-0.102384,-1.261747,0.283824,1.691052,1.586631],[-0.818433,-0.666284,-0.610457,-1.363942,0.832141],[-0.686291,-0.065463,-1.200994,-1.226568,-0.840604],[-0.830387,-0.98814,-1.079018,-1.451014,-1.815528],[0.860266,0.145736,-1.77275,-0.33306,-1.011317],[-1.730573,-1.278056,-1.26006,0.326786,1.7748],[-0.003186,1.200237,1.163297,1.02259,1.78493],[-0.441903,0.029787,-0.026503,-0.040656,1.209072],[-0.23128,1.08253,1.670101,-1.186777,-1.201319],[-0.51059,0.394202,0.880585,0.493058,0.442747],[0.545681,1.184022,0.036105,-1.794893,-1.254016],[0.318023,-1.617008,0.223441,1.841874,1.299474],[-0.084774,-1.784259,-1.552698,-0.336853,1.431774],[-0.176883,-0.45032,0.677448,-0.690277,0.13724],[-1.674933,-0.535281,0.250869,0.392669,1.705873],[0.244761,0.24829,1.058643,-0.060694,1.644375],[0.608862,-0.413231,-1.711601,-0.991205,0.970049],[0.723897,-1.437401,-0.527217,0.206792,1.288532],[-1.71453,-1.453534,-0.215749,0.319927,-0.401319],[0.191577,-0.219843,1.125713,1.840443,0.822632],[-1.752731,-1.939674,-0.839924,0.816002,-0.64249],[0.677249,-1.707598,-1.733118,-1.253454,-1.568309],[1.35156,-1.653175,0.851292,1.304133,0.712651],[0.512562,0.85769,1.168273,0.555912,0.633303],[-0.888136,-0.671318,0.427172,1.614389,1.819711],[1.718378,1.337934,-0.65324,-1.987324,-0.332755],[0.385276,-0.416325,-1.15247,-1.447578,1.190644],[-0.750134,-1.177532,0.752427,-0.22122,0.101685],[-1.064192,-0.540258,-0.078634,-0.090702,-1.68235],[-1.952959,-1.229561,-0.275243,-1.497004,1.788565],[1.763668,-0.585976,-1.221173,-1.008688,-0.428443],[-0.649742,-0.147465,-0.539609,1.769318,0.841756],[-0.253605,-0.93909,-0.034001,-1.346228,0.614657],[0.709829,-1.78747,-1.503183,-1.148589,-1.792461],[-0.073097,0.608379,-1.515883,1.63427,0.912473],[-0.218322,1.713307,1.787855,1.045593,-0.84403],[-1.197109,1.599191,-1.084511,0.288359,-1.578251],[-0.077297,0.050251,1.022422,1.031381,0.725289],[-0.699729,-0.401624,0.732195,-1.907261,-0.441469],[-0.669095,0.896946,-1.76968,-0.138559,1.505485],[0.76279,0.400306,1.000044,-0.802169,-1.796552],[-1.784993,1.734253,-0.881515,0.036984,1.414183],[0.045163,-1.072252,-0.247671,-1.600458,-0.221104],[1.591759,0.378649,1.600608,1.189705,0.955328],[-1.691221,-1.608521,1.039202,0.111966,0.253262],[1.428379,-1.846936,1.0237,0.40356,-0.808379],[0.341393,0.172798,-0.957445,1.067506,-0.455348],[-0.092994,0.097811,0.939311,-1.70118,1.048728],[1.085719,-1.662992,-1.460798,-1.706087,1.841958],[0.310248,-1.699508,-0.719262,-0.411706,-1.99528],[-0.037182,0.883687,-1.269193,0.588893,-1.62938],[-1.154105,0.605874,-1.771376,0.101162,-1.890633],[-1.823659,-0.594598,-1.172361,1.637362,0.178469],[1.678636,-0.802924,0.361322,-1.633277,1.390189],[0.679089,-1.107157,1.408973,1.237991,-1.84245],[1.220368,-1.554149,0.016942,0.944506,1.15494],[-0.169993,-1.013109,0.538251,-0.668075,-1.88051],[0.801148,1.076848,-0.369267,0.21752,0.526093],[-1.942251,1.683178,0.493811,-1.065403,-1.635239],[1.141888,0.807802,0.88049,-0.345737,1.321438],[-0.115848,1.138269,1.89241,-0.225636,-1.415843],[-1.253052,0.37777,-1.58913,-0.75619,-0.316755],[-1.377711,-1.429955,-1.94787,-1.949954,0.891422],[-0.278321,0.312091,-0.054656,-1.689773,-0.989883],[-0.274258,-1.019822,0.101758,-0.498254,-1.12881],[-0.804577,-0.668512,-1.424286,-1.564211,-0.095773],[-1.428372,1.322082,-1.742558,1.188102,-1.315184],[1.205397,-1.996789,1.950486,-1.188264,1.224235],[1.896214,0.941301,0.193331,-0.324547,1.224767],[0.543389,-0.248588,0.463013,1.347075,0.549903],[-0.55813,0.649099,0.143154,1.650947,1.222626],[-1.313842,1.536518,-0.734024,-0.022587,-1.755239],[-0.576374,0.964223,0.740588,0.114053,-0.269999],[0.954565,-0.35048,-0.446068,-1.541514,0.093196],[1.428787,1.379851,-1.874331,0.642612,0.619185],[-1.967738,-1.673928,-1.958409,-1.220982,-0.056673],[-1.367914,1.364654,0.514553,-1.652996,0.652795],[1.759801,-0.031824,1.250685,-1.885572,1.757323],[0.203783,0.46621,-1.870928,-1.556054,-1.619959],[-0.316516,-0.824382,1.403471,-0.789171,0.628091],[-0.623014,-0.834864,-1.695794,-1.05483,-1.877407],[-1.52173,1.485864,-0.091781,-1.746398,-1.858085],[0.164147,-1.51454,0.213225,-0.515133,0.259727],[0.62556,-0.84075,-1.359372,-1.678997,-1.68707],[0.084223,-0.113248,-1.00605,-0.085897,1.417944],[0.917774,0.80815,-1.449797,0.89015,-0.53781],[-0.826082,-1.552868,-1.367248,-1.868044,-1.336713],[0.06776,1.863834,1.604676,-1.712951,1.224469],[-1.96926,1.319687,-0.912156,-0.38658,-1.950011],[0.706535,0.162528,0.467176,-1.310236,1.757533],[1.951671,0.726416,-0.750396,-0.286331,-0.96352],[0.001744,-1.477657,1.284756,-1.929161,-0.104344],[-0.135046,0.367073,-1.471388,0.096785,0.360528],[0.158383,0.790574,1.851705,0.438476,0.237094],[1.446753,1.758677,-1.66209,-1.912923,0.921328],[0.015842,-1.977463,0.589174,1.954021,0.520203],[1.592718,1.164208,-0.933645,-0.013062,-1.47724],[-1.676517,0.615657,1.806985,-1.910685,-1.23122],[-0.133982,-0.601529,-0.50115,-0.312041,0.084139],[1.113356,1.059991,0.463488,-0.323823,-1.650966],[0.856751,-1.169018,0.766258,1.215458,-1.493196],[1.135996,0.169587,-0.907931,0.25577,0.320417],[0.010792,1.15651,-1.25402,0.623367,1.823961],[-1.45767,0.585597,0.076189,-1.053162,-0.707945],[-1.131622,-0.348607,1.137585,-0.062652,-1.217906],[-0.72334,1.347168,1.464831,-1.388521,-1.87414],[1.422269,1.641651,-0.511964,1.987108,0.379366],[-0.778224,1.755882,1.273708,1.178876,-1.914727],[-1.750151,-0.182774,0.235654,-0.275889,-1.228996],[0.646827,-1.43323,1.367381,0.458973,0.214223],[0.588281,-0.918803,1.502389,0.597502,-1.497856],[0.070206,1.018715,1.287567,-0.782503,-1.637833],[-1.402635,-1.389363,-0.498339,-0.226426,0.146052],[0.374265,0.50756,1.090339,1.723768,-0.26333],[-0.235098,-0.357334,0.576284,-1.290907,1.198845],[-0.594118,1.652405,-0.015809,-0.479238,-1.557759],[0.582801,-0.10769,0.197645,1.758943,1.423518],[-0.003271,1.410795,1.411503,1.729043,0.578492],[1.637457,-1.574661,-1.048606,0.396123,-0.407828],[0.807968,0.172029,-0.448445,0.611596,1.408999],[-1.978495,-1.115644,1.942961,-1.696167,-0.759059],[0.503868,1.458248,-1.347234,0.901054,-0.539652],[1.174657,-1.316476,0.862642,1.198316,1.174246],[-0.810321,-1.221227,1.726155,-1.014311,1.467234],[0.591719,1.024996,-0.786591,-0.366593,-0.486577],[1.440126,0.126755,0.858398,1.580108,-0.673029],[0.821204,-0.830554,-1.262635,1.880629,-0.115767],[1.265242,-1.826351,0.888884,1.675578,1.492907],[1.507812,-0.109157,-0.783979,-1.628591,1.171868],[-0.587055,1.357314,-0.463505,0.68859,-1.901018],[-1.560456,-0.838136,0.975237,0.79208,-0.579433],[-1.691397,-1.251004,0.707568,-1.742311,-0.115984],[-0.106217,-1.430295,-0.248165,0.426469,-0.326816],[1.090427,1.406219,-0.334416,0.767769,-1.968993],[0.826733,-1.655364,-1.362787,-0.004629,0.121286],[0.24099,0.995549,1.212137,0.6894,-0.197824],[0.467478,-1.670645,-0.837761,-0.369766,-1.682045],[-0.378183,-0.100137,-1.862963,-1.461971,-1.032328],[-0.242818,1.507857,-0.496957,0.383655,1.530836],[-1.192437,0.539584,-0.470881,-0.697376,1.292085],[1.495505,1.166498,1.062168,0.903042,1.082824],[1.952142,-1.30875,-0.640956,-1.046919,-1.421987],[-0.182089,0.046608,-0.630977,0.562937,0.453464],[-0.616087,0.752917,-0.279537,1.154447,-0.164234],[-1.881746,-0.918669,0.964787,0.092262,1.255389],[-0.118536,1.707701,-0.037962,-1.503828,-1.325687],[-0.595621,1.911706,-0.216905,0.297265,1.749603],[1.490689,1.859513,-0.561728,0.373017,-1.376142],[-1.606519,-0.852092,-0.724579,-0.270618,1.038249],[0.040871,-1.893728,0.353719,0.566315,0.479086],[1.43304,0.130227,-1.608471,-1.804921,1.096685],[-0.404011,1.753413,-0.345148,0.257895,-0.055732],[-1.313973,0.190319,0.855591,-0.306808,1.176607],[1.05805,1.226442,1.947295,1.076363,0.675139],[1.091851,0.175636,0.520527,-0.627656,1.108093],[-1.647117,-0.627266,0.113493,-1.685596,1.046456],[1.961339,-0.513937,0.229427,1.057454,1.146171],[-1.178886,0.377737,-0.980175,-0.362322,-1.643273],[-0.049389,1.560601,-1.137221,1.313431,1.778631],[-0.571748,1.524638,-1.720813,0.35724,1.455123],[0.455455,0.177723,0.727467,-1.269149,0.241627],[-1.842973,1.468002,0.599152,-1.688469,0.886459],[-0.286037,-0.134961,0.057686,0.807466,-1.086595],[0.836903,0.459912,-1.300841,1.035521,-1.327978],[0.207283,1.404906,-1.607855,1.666893,-1.206345],[0.279679,-1.667799,-1.205179,0.339813,0.618129],[-1.823577,0.449009,-0.464268,0.791028,0.688983],[-0.493062,-0.795582,1.836077,1.005805,0.115045],[1.547532,0.162925,0.453126,-0.271603,1.615384],[1.523913,0.647116,1.364147,0.019694,-0.603331],[0.938404,1.32305,-1.178048,1.890528,-1.875713],[-1.039016,1.992447,0.060608,1.220914,0.455846],[-1.760453,1.902938,-0.091541,-0.654612,1.047656],[0.829894,-0.114245,1.422276,-0.906501,0.300087],[1.312463,1.00553,0.489387,1.708555,-1.673825],[-1.930637,-1.806894,0.583917,1.350752,-1.337072],[-1.314042,-0.58836,1.283743,-1.661883,1.006884],[-0.209256,-0.069393,-0.857821,-1.956131,-0.66152],[-0.928575,1.697442,-1.238632,0.893426,-1.788155],[-1.289746,1.317294,1.251371,-0.862765,-1.16089],[0.035747,0.215049,-0.924698,-0.717157,-0.422633],[1.330515,-0.690067,1.299092,-0.492389,-0.739625],[0.871761,1.02574,-0.386537,-0.053804,-1.545342],[-0.533059,-0.215429,0.862302,-0.194906,-1.307218],[-0.020095,-0.772913,-0.855034,0.493512,-0.997703],[0.843554,-0.591548,-0.679615,-1.465815,1.4763],[1.622576,0.558678,1.851977,0.564497,0.707408],[0.835733,-0.656737,-0.195461,1.350106,0.998044],[1.998576,-0.769417,1.145057,-0.604575,-1.077086],[0.47385,0.971901,0.523721,-0.319033,1.07483],[0.279651,-0.490513,-1.01729,1.631946,0.656005],[-0.353636,-0.048382,-1.857586,1.992556,1.961228],[1.671206,0.339262,1.274257,-0.775402,-0.810959],[-1.67107,1.983219,-0.776144,-1.973585,-1.924287],[0.352108,-1.638139,0.801652,-1.428227,-0.949542],[1.338478,1.698496,-1.536984,0.591511,-1.803635],[0.238179,0.826211,1.301358,0.145614,1.664609],[0.981007,1.586695,-1.330136,1.527416,-0.218558],[1.176629,1.348011,-0.671682,1.487554,-0.957889],[-0.161425,-1.25087,0.169966,1.75245,-1.36274],[-0.294959,-0.741308,-1.573694,-0.294856,-0.01467],[1.897441,0.707288,-0.052982,1.29146,-0.365442],[1.943158,-0.303412,0.985146,-1.355379,-0.991526],[-1.130432,0.500792,-0.088726,1.709688,-0.35842],[1.102467,-1.216779,-0.468233,0.675787,0.354799],[0.472056,0.137779,0.330921,-1.025835,-1.359161],[-0.643557,1.850475,1.746393,-1.087493,0.896612],[-0.143867,-1.695436,1.433315,-1.400308,-1.12348],[1.745586,-1.779088,-0.542092,1.367808,0.348964],[1.022488,-0.01747,1.93661,0.021592,0.445166],[1.666925,1.961094,0.82975,1.976288,-1.960427],[0.170595,1.555455,-0.912751,1.013584,-0.192309],[1.749689,0.680294,-1.741543,0.744252,-1.855119],[-0.759643,-1.756694,-0.388592,0.176196,0.939521],[1.392504,-0.690412,1.203885,-0.925603,-0.122244],[1.124941,-1.13221,1.428375,1.22324,-1.018748],[-0.714734,-1.557738,-1.014311,0.365335,0.431801],[-1.752977,-1.919533,1.195384,-0.997628,-1.779377],[-1.143002,-0.767175,1.554193,-1.457991,1.669725],[1.363729,-0.003546,1.07176,1.132708,-0.682644],[0.657102,-0.226477,-1.057155,1.775315,1.91072],[-0.65931,-0.894253,1.731192,1.440922,1.690939],[-0.491638,1.973835,-1.30898,-0.389621,-0.807869],[-0.926319,1.191023,1.929405,-1.95257,-1.459446],[-0.755738,-0.86237,0.381437,0.387747,0.740664],[-0.70796,-0.628568,-1.320461,1.897972,-1.836941],[-0.710222,-0.346815,0.786351,-0.003685,-0.733195],[1.910617,1.919719,-1.315397,-0.681028,0.971943],[-1.522214,-0.476106,-1.379376,-1.478274,-0.750371],[1.973986,1.307034,0.026371,-0.882956,-1.870189],[-0.168816,-0.633106,1.282558,-0.794863,-1.001681],[-0.29505,-0.175055,0.613878,-1.1893,-0.774559],[0.614115,0.582596,1.813861,-1.443685,-1.70363],[1.232849,0.948312,0.591402,1.140977,1.574585],[1.005213,0.058603,0.825066,1.432091,0.853781],[0.138306,1.507762,1.128284,-0.008618,1.942809],[1.387357,1.613345,-1.686054,-1.13701,-1.748099],[0.002193,-1.475052,1.702189,0.236507,0.813078],[0.364474,-0.99865,-0.669464,1.129307,0.337983],[1.507849,1.089308,0.814045,-0.480653,-1.638542],[-0.512888,-0.442023,-0.426008,1.621678,-1.420312],[-0.233557,0.254114,-1.581339,-0.035195,-0.169112],[1.090147,-0.877649,-1.653369,1.982298,-1.35092],[-1.023912,1.248052,1.208447,1.373833,0.477748],[0.806925,1.010808,1.693971,-0.295321,1.035258],[-1.890944,-0.045969,1.895461,-1.381638,-1.151685],[-0.103325,1.271324,1.883957,-0.751696,1.816347],[0.430849,0.095956,-0.337151,1.048402,0.249519],[-1.063574,0.673631,0.019972,0.952018,0.197957],[1.227167,1.494072,1.373277,-0.651466,-1.930795],[0.053212,1.256234,1.477327,-1.773824,-0.235436],[-0.008844,0.745744,-1.894025,-0.856758,1.443986],[0.124009,0.353871,-0.884328,0.985407,0.111717],[1.8129,-0.648444,0.256558,-1.645153,1.724755],[1.181473,0.975606,-0.772878,1.977135,-1.27346],[-1.635649,-1.847055,-1.304887,0.264222,0.294391],[0.389079,0.733452,-0.744002,-0.318919,-1.557573],[0.869477,0.505565,1.055741,-1.402809,-1.532079],[1.625306,-0.636838,1.529836,-0.678059,0.900916],[-0.189573,1.411789,-1.147772,0.777816,0.19174],[-0.817723,-1.515405,1.54457,0.97785,1.374033],[-0.554174,1.930756,1.061789,1.593535,1.924669],[-0.621653,0.78067,0.812691,-1.922034,1.626891],[1.771601,-1.086122,1.431537,0.250764,0.219153],[-0.808696,-1.384364,-1.345949,-1.183545,-0.553153],[-0.038025,0.136149,-1.784129,1.165587,0.814131],[1.55648,-1.027141,-0.726612,0.45727,-0.488679],[-1.48316,1.731982,-0.332945,1.603275,-1.429704],[0.235143,0.184704,0.786342,0.744105,-1.914259],[-0.745802,-0.198173,-1.924399,1.083015,-0.065053],[1.737584,-0.745556,1.114429,0.360249,-1.270648],[1.283073,1.917314,-0.7165,-1.871172,1.618723],[-0.117451,1.079117,-0.135152,-0.126935,-0.11736],[-0.650851,0.143517,-1.259852,1.022662,1.308267],[-0.123382,-1.561523,-0.502232,1.51103,-1.262332],[-1.109341,1.519409,-1.475817,-0.18949,0.079832],[0.250543,1.983396,1.384561,1.458623,1.041858],[-1.467726,-1.274217,-0.517427,0.236547,0.714383],[0.266756,-1.819784,-1.764566,0.342751,-0.494704],[-0.864794,1.183598,0.485976,-0.230614,-0.107651],[1.395365,0.100109,-1.204418,0.649668,-1.653288],[0.858929,1.557229,-0.876499,0.947913,1.017286],[0.974191,-0.753912,0.664632,0.366954,-1.226014],[-0.749381,0.029822,-0.752653,1.173193,-0.819576],[-0.079226,-1.949199,0.549045,-1.109132,0.365247],[1.840029,0.62115,1.176584,-1.938105,-0.445667],[1.580941,1.471074,-0.501793,-0.174707,1.113724],[0.801215,-0.76896,-0.442697,-1.798532,-1.428385],[-1.948624,1.972706,-0.635719,1.163842,0.848046],[0.640863,-0.094343,0.129952,-0.832131,-1.440611],[1.749227,-1.225691,-0.127714,-1.689699,1.500382],[-1.48212,-0.89222,-0.741795,-1.7342,1.78398],[0.376887,1.161786,-1.827647,-1.085434,1.912162],[-1.445953,-0.410439,-1.521693,-1.648509,-1.853758],[0.325572,0.604713,1.269475,0.541497,-1.012575],[-1.958714,-0.372779,0.512203,-1.971857,-1.344981],[-1.611904,1.473444,-0.39403,-0.113161,0.203998],[1.318546,-1.791527,-1.084906,-0.268466,0.429927],[1.784784,0.632416,0.554396,0.557378,-0.969099],[-1.15505,-1.125341,1.478099,0.539092,-1.778874],[-1.447425,-1.018828,0.622073,0.161092,1.336994],[-0.620165,1.539342,0.216902,-0.354971,1.24605],[-1.804294,1.911252,0.876507,-1.695703,0.163779],[1.682227,-1.128196,-0.055629,1.869004,-1.73699],[1.489583,0.239627,-1.741152,0.988284,1.339853],[0.770139,1.33892,0.193827,-1.902652,0.145841],[-1.891393,1.666627,0.241127,1.270177,-0.438654],[-1.225139,-1.789646,-1.624476,1.962745,0.80345],[-0.063718,-1.086921,-1.24121,-1.156183,0.987087],[0.290814,1.456197,-1.297062,0.166625,0.646707],[0.113808,-1.830451,-0.689448,0.805599,1.252533],[-0.143195,0.007669,1.773425,1.444535,-0.271956],[-1.39728,0.325349,0.820307,0.254439,0.962625],[0.4901,0.179564,-0.95614,1.552556,-0.991432],[0.415062,-0.688319,-1.943354,-1.871852,-0.154972],[0.323348,-1.072634,0.421069,-1.970063,-1.643252],[0.471635,0.684668,-1.602842,-0.773419,1.150683],[-1.872272,-1.249152,-0.434655,-1.095227,0.446466],[-0.149173,-1.136923,-1.117508,-0.640104,1.853906],[-0.648725,-0.005514,-0.522532,-1.245441,1.892514],[0.381034,0.665074,0.717665,-0.659706,1.700407],[-1.244734,1.741819,1.716085,0.255802,-1.060294],[-1.534537,1.759276,-1.697226,-1.560567,-0.27775],[1.59428,-1.720954,-1.34361,-0.423764,1.526351],[-0.495029,-0.972483,0.203314,0.772713,0.434566],[1.219704,-1.853336,-0.143776,0.094449,-1.054628],[-1.093814,-1.244472,-0.888853,1.214262,1.706561],[-0.671497,-0.510443,-0.613459,-0.478426,-0.263602],[1.023576,1.538804,-0.529327,-1.518835,0.320842],[-0.164668,0.811257,0.985565,1.482887,-1.917352],[-1.497437,-1.954035,0.918214,1.92367,1.875835],[0.931997,1.774923,0.469467,-0.272911,-1.388069],[-1.25251,0.093367,0.928176,1.679168,-0.316519],[-0.578194,1.305557,-1.242665,1.80366,-0.715831],[-1.417369,0.202426,1.863903,1.608293,0.555355],[0.01553,0.560767,0.57868,-0.995361,-0.899338],[0.663223,1.645977,0.246995,0.643616,-1.146493],[1.291964,-1.625717,-1.279739,0.49795,-1.489024],[-0.238964,1.790195,-1.011502,-1.815092,-0.159429],[1.150634,-1.28812,-1.644782,-1.20648,-1.780594],[1.731422,0.954524,-1.064543,-1.208282,1.992986],[0.80608,1.260721,-0.877317,-0.137452,-1.689726],[-1.135068,-1.682039,-1.201487,1.357651,-0.415473],[-0.239437,-1.483491,-1.338658,-1.002783,-1.798662],[-1.472945,-0.263892,-1.1806,0.36227,-0.693143],[-0.107578,0.76664,0.098861,-1.134233,-0.227663],[1.91516,0.782431,0.437898,0.011361,-1.178645],[1.886787,-1.017778,1.128493,-0.637989,0.903594],[0.138984,-1.72212,-1.578339,-1.776657,0.301214],[-1.997776,-0.322652,-1.151594,0.51156,-1.369323],[-0.430349,0.942553,0.115045,0.801562,-0.495663],[-1.739632,0.722596,-1.959375,-1.017933,1.757531],[-0.532281,1.345396,-1.967398,-1.628362,0.576021],[0.433509,-1.36207,-0.923071,-0.197181,-0.861613],[0.463917,0.209584,-1.239565,-0.801202,-1.47928],[1.79731,-0.760647,0.905989,1.90529,0.397287],[-1.085628,1.780066,-0.085872,-0.794405,-0.4762],[-1.398574,1.632206,0.220117,0.728061,0.637428],[0.177256,1.844287,1.741057,-0.90371,-0.171556],[-1.730121,0.092963,0.402624,-1.106165,0.394482],[-0.136046,0.583393,-0.91732,-1.116914,0.43928],[0.780104,0.17707,-1.145414,-0.251397,1.824949],[-0.248716,-1.32845,0.904851,1.481579,-1.517392],[-1.89905,0.101823,-0.226775,-0.63907,0.904439],[-0.21175,1.410232,-0.215275,0.242954,0.770873],[1.181811,-1.605374,0.841085,-0.92149,0.640601],[-0.890685,1.914302,-1.154751,1.765366,-1.955437],[1.180914,1.019792,0.062972,0.45078,-0.321545],[-0.092531,1.977138,-0.820043,1.944262,0.453212],[-1.600467,0.750914,-0.522034,1.12351,-1.255634],[1.660125,-0.718611,-1.825926,-0.613679,1.50324],[1.179671,0.310385,1.676897,0.728631,0.639707],[0.366692,-1.039346,-1.423154,-1.280135,-1.394104],[0.700193,-1.848803,-1.472725,-1.433623,1.6345],[-0.380146,1.039962,-1.457989,1.962841,1.899528]]}