{"LearningCoefficient":0.5,"Biases":[0.37462807,-0.9158602],"Weights":[[125.94148,-256.30774],[125.71115,-256.74316],[126.67328,-253.62103],[127.79349,-254.82959],[129.28656,-255.42358],[127.23369,-254.879],[127.16083,-253.0126],[129.08337,-256.6812],[127.98685,-256.8038],[126.2298,-254.3227],[128.4491,-254.72263],[128.84055,-255.42484],[128.77841,-254.48547],[127.02399,-255.30905],[126.97171,-255.5534],[127.69974,-253.4834],[127.99017,-253.95483],[126.49344,-255.20935],[125.539795,-253.35013],[126.36786,-255.11981],[125.85541,-255.96701],[126.13097,-255.58435],[127.30832,-256.57462],[128.39595,-256.98434],[126.581314,-253.48834],[128.72107,-256.55148],[125.94891,-255.27133],[126.74205,-255.4877],[126.79724,-254.53104],[128.40909,-254.7576],[125.625275,-256.16827],[126.79468,-254.82294],[126.80983,-255.82626],[128.21414,-255.64325],[128.43202,-254.40439],[127.282196,-256.9226],[126.80914,-256.5969],[129.07605,-255.36523],[127.36948,-254.42334],[129.44406,-253.52917],[126.56363,-253.7887],[126.66594,-253.27457],[125.600296,-254.89447],[128.8346,-254.49548],[128.10881,-256.2244],[128.49033,-254.53638],[127.474396,-255.59827],[128.36768,-256.63245],[127.785065,-253.6452],[126.15567,-255.67139],[126.6942,-254.33517],[125.97902,-254.97803],[127.97012,-253.29987],[128.09613,-253.63092],[128.01923,-253.94885],[129.31052,-253.72339],[127.90283,-253.16852],[127.77733,-253.63669],[126.71217,-254.34125],[126.06549,-255.87213],[126.784775,-256.60767],[125.91879,-254.5249],[127.7861,-255.15018],[129.07776,-255.0462],[132.60449,-255.15439],[192.65442,-256.8997],[185.53073,-256.59857],[148.56427,-210.3422],[267.59195,46.595337],[295.6895,82.8692],[290.39056,23.11348],[167.91412,-128.0896],[128.62396,-165.28601],[125.59572,-159.82092],[129.30423,-236.83112],[128.68945,-255.69244],[126.030655,-253.68988],[127.97371,-255.07913],[125.78714,-253.75995],[127.591,-255.95197],[126.74669,-253.95325],[127.08124,-255.63892],[128.457,-254.84253],[126.14157,-255.85968],[127.214874,-253.42242],[129.14627,-254.19028],[128.32455,-254.5231],[128.21368,-255.19537],[125.69493,-254.6944],[128.62152,-253.681],[128.87933,-237.75409],[144.53183,-186.9602],[216.36389,-49.523987],[466.30396,19.448761],[560.1593,218.07846],[681.64484,443.2362],[676.8798,580.3756],[775.0225,602.15173],[719.7301,345.6589],[649.9544,225.67528],[659.9596,305.0622],[519.41016,273.74396],[464.77576,128.27222],[125.09555,-27.514374],[139.26508,-112.78485],[146.78009,-211.74554],[126.85504,-254.19202],[127.87442,-253.47891],[128.2919,-256.2998],[128.82974,-255.25641],[128.77985,-253.03351],[129.42914,-255.08939],[127.490204,-256.87674],[128.62119,-255.38928],[128.81882,-254.91888],[129.20355,-253.96875],[126.96179,-256.6824],[173.14453,-237.2905],[335.3629,-132.62378],[296.95825,-75.46411],[495.82983,54.623413],[830.317,302.5968],[838.3693,618.85223],[907.97046,922.27637],[796.3102,955.6233],[575.35876,1176.5737],[198.55023,1215.4343],[87.31998,1113.7653],[136.4364,1057.1006],[101.65936,640.9327],[-17.690369,-94.568054],[44.508118,-302.3416],[-103.75641,-301.73804],[47.832733,-361.93518],[148.6314,-705.51416],[44.336563,-384.1972],[98.30551,-325.41113],[125.86145,-256.82812],[126.37648,-254.07483],[128.93478,-254.67688],[127.79123,-256.99826],[125.95015,-254.04419],[129.42178,-255.89554],[126.36517,-256.43802],[129.34164,-381.14746],[255.95023,-286.66467],[396.54163,-475.5835],[386.74268,-137.1347],[657.98517,439.36768],[985.9558,1111.5472],[726.68304,1591.4186],[743.7353,2139.666],[785.1596,1691.7755],[374.77185,1559.623],[-15.875427,1738.0519],[-349.35742,1671.9653],[-407.95923,1702.8917],[-196.6947,1460.4958],[-333.7146,447.86237],[-75.09369,-690.3585],[-50.77014,-446.17993],[-327.96494,-548.4573],[-223.06201,-468.57953],[-40.867477,-421.73248],[-5.979889,-344.18835],[128.77173,-256.19193],[125.68553,-256.35135],[128.15747,-255.44153],[127.48979,-254.37515],[128.98224,-253.72168],[132.39801,-254.05762],[150.60034,-256.85425],[128.26807,-255.21567],[296.4281,-333.9469],[352.66702,-86.465866],[480.3797,447.6676],[582.89526,859.9923],[756.50415,1335.2903],[686.6288,1615.4238],[751.8599,1568.288],[469.81714,1371.1571],[225.80753,1016.5691],[-52.16516,749.3976],[-709.5193,1509.5533],[-813.5237,1879.014],[-837.42566,1422.2659],[-342.1515,431.8829],[25.97174,-187.86108],[406.70816,-528.98706],[-208.0112,-253.97952],[-224.70422,-30.588928],[-273.49976,-205.40698],[-80.92392,-286.1905],[128.47015,-254.21631],[127.204926,-253.49695],[128.25616,-254.04102],[129.01215,-256.46466],[125.789276,-254.66306],[210.3451,-254.7497],[253.06995,-254.45554],[281.7647,-255.31332],[404.38416,-126.14191],[521.2529,196.74042],[552.5029,650.58936],[877.05774,1048.6049],[552.5827,1110.273],[773.4672,1230.3818],[347.7315,1258.2224],[-232.89514,928.58887],[-709.7551,877.8842],[-1149.2527,606.973],[-1292.9634,968.6015],[-1079.8235,1404.572],[-728.5746,983.07446],[-690.4108,603.4844],[-15.077637,-171.24905],[171.20026,497.64514],[81.95734,600.36707],[-89.84381,321.25345],[-507.05426,-53.454163],[-247.57678,-253.57483],[127.713776,-255.99026],[126.949295,-254.95447],[128.00098,-253.89563],[126.18646,-255.13278],[127.3978,-256.6506],[174.02429,-256.16376],[250.29791,-253.99939],[380.7232,-256.44995],[482.4109,74.075134],[590.86755,563.1323],[633.60596,1093.6554],[427.65906,942.0399],[292.05884,995.3794],[-183.90479,1029.1013],[-394.06702,977.7991],[-653.9454,634.8287],[-1108.1681,586.3082],[-1595.5771,-167.55145],[-1396.1064,105.74118],[-757.8928,441.38403],[-489.883,631.1605],[-170.63306,209.55005],[-7.036621,-156.87134],[311.74146,1596.5474],[148.75916,1521.3096],[-293.67627,906.0209],[-726.34937,16.235077],[-194.11902,-253.20062],[126.78258,-255.24786],[128.55591,-256.68616],[126.554825,-253.83179],[126.13309,-255.9165],[127.39932,-254.79553],[128.14673,-253.8807],[208.5509,-277.82306],[380.43488,-255.68747],[366.75192,58.636078],[359.81647,853.7221],[310.1599,684.25543],[-215.44156,525.43665],[-735.3307,576.88116],[-1195.4917,433.17236],[-1763.306,472.51373],[-1669.6227,483.25195],[-2097.3586,-107.68237],[-2126.1226,-1209.4385],[-1343.8823,-709.80725],[-924.1698,-297.02686],[-271.8438,303.6853],[-78.13226,-109.57773],[-99.13165,489.3369],[127.534424,1372.9186],[-98.23743,1967.0122],[-534.6614,1097.1619],[-565.1938,-38.73535],[-215.15314,-236.04031],[129.486,-254.08319],[126.75952,-255.44305],[128.9273,-253.44235],[128.07408,-254.17151],[127.87364,-253.39883],[129.41693,-253.79877],[132.94061,-254.20209],[472.35492,-253.23871],[353.8127,79.964066],[7.97287,585.0719],[-363.24023,156.83545],[-1115.5879,226.26006],[-2099.4556,27.924347],[-2356.002,273.4865],[-2267.1973,517.6926],[-2815.4846,84.58618],[-2516.237,-970.3069],[-1387.6648,-2170.1953],[-367.06216,-1965.9971],[155.10864,-927.51184],[-233.32709,37.536285],[-884.914,208.37677],[-496.8999,1171.2297],[-85.61841,1578.248],[-510.29395,1685.8281],[-956.17957,1070.762],[-783.2752,163.61409],[-266.58514,-137.67017],[126.18756,-285.523],[126.02043,-255.25034],[128.37051,-255.9288],[126.06073,-255.95737],[127.340546,-253.64539],[127.204025,-256.28275],[126.44887,-254.60431],[332.9924,-254.92084],[-57.11084,280.66446],[-847.4142,485.92697],[-1336.8152,141.33548],[-1845.2476,174.67993],[-2495.4321,204.37445],[-2226.661,467.75244],[-2654.4355,563.78784],[-2564.3315,-159.25427],[-1209.8822,-1851.2739],[-369.29446,-2801.0674],[846.2858,-2862.9512],[1015.6581,-878.3013],[112.56506,-309.77032],[-949.1471,746.25073],[-651.2286,1624.7255],[-137.57263,1668.7078],[-843.09924,1231.6589],[-1192.3025,800.7765],[-788.32605,237.9234],[-316.6,-37.45993],[81.659454,-311.17285],[19.045685,-256.6903],[126.86801,-256.49966],[127.05319,-253.66077],[126.19214,-256.41284],[128.02574,-256.53192],[125.66739,-253.2157],[183.7923,-255.78558],[-619.39764,380.0007],[-1272.301,237.79282],[-1562.9285,137.90543],[-2174.1597,56.707092],[-2526.4507,491.09082],[-2553.1897,1107.1134],[-2266.3738,469.9217],[-1284.3229,-522.2339],[-169.34961,-2351.531],[1117.6854,-3678.1772],[1844.541,-2849.3862],[1425.8339,-941.7162],[314.52142,300.08887],[-325.56842,1171.4841],[-438.23615,1854.0219],[-887.4995,1465.3955],[-1256.9653,760.71313],[-1449.4332,582.91534],[-912.65015,315.60016],[-399.1654,79.22627],[74.24902,-253.4758],[42.943115,-254.13654],[128.65994,-254.61636],[128.143,-254.92188],[127.53006,-253.70615],[127.04889,-256.64435],[127.83295,-253.74799],[125.84346,-198.1452],[-796.28217,352.42664],[-1211.8684,184.99625],[-1727.4397,286.59277],[-2241.958,417.4064],[-2240.8284,916.96814],[-2275.7275,1233.0735],[-1484.4338,768.745],[-398.08124,-854.56665],[1257.634,-3300.4727],[2083.9456,-4032.1582],[2173.109,-3112.392],[1722.2548,-499.3838],[321.22668,887.329],[25.594269,1670.9594],[-555.223,1670.2388],[-1304.2847,1199.336],[-1624.8434,418.66284],[-1543.1599,894.1396],[-910.62146,405.45117],[-458.7721,212.34308],[110.781845,-254.71216],[117.36749,-254.39514],[125.518585,-253.3739],[128.1254,-254.32819],[126.17592,-254.13208],[127.83276,-256.94196],[127.543274,-255.30981],[146.15924,-42.362732],[-705.46094,61.90918],[-1551.5714,423.3273],[-2100.1897,716.9132],[-1944.9995,902.73517],[-1796.5227,1441.8615],[-1841.2172,1417.5669],[-652.5407,705.3395],[1190.5188,-1070.0272],[2676.1252,-3189.77],[3087.499,-3381.7927],[2625.162,-2633.6843],[1770.749,-92.48459],[790.8654,1308.739],[209.8451,1706.5885],[-854.6334,1440.8682],[-1644.9109,829.8714],[-1868.542,726.30743],[-1371.4049,947.4839],[-896.8921,278.89728],[-335.8452,174.56488],[140.66614,-234.87524],[134.94461,-255.95242],[126.48642,-256.08472],[129.19,-255.34573],[129.17029,-253.09555],[126.10507,-254.59106],[97.561615,-256.93304],[237.85034,-126.67822],[-735.88696,147.37015],[-1477.5652,689.42096],[-1946.1339,1316.0385],[-1757.1611,1634.4102],[-1434.771,1722.8833],[-902.59314,1650.6078],[813.37964,963.5242],[2381.7056,-731.80005],[3065.1353,-2329.0715],[3444.1084,-2797.6272],[2609.7773,-2324.745],[1865.4438,641.7621],[1404.635,1173.6199],[507.75818,1753.2659],[-798.90985,1441.606],[-1395.3423,1035.9556],[-1521.3221,1175.824],[-923.3705,550.9358],[-657.6376,244.10406],[-82.56323,185.69934],[309.00092,-175.26334],[237.4295,-256.2453],[126.667465,-253.63562],[127.58087,-255.616],[127.72479,-253.83923],[126.388504,-253.8747],[115.99312,-197.98749],[317.09448,-35.138397],[-574.55786,485.91202],[-1390.8798,1215.759],[-1829.1699,1543.3308],[-1491.1277,1746.9525],[-1233.2788,1994.5],[-177.89105,2066.5176],[1593.9058,1084.1027],[2708.6904,-67.690796],[3559.6328,-1830.3312],[3439.8232,-3031.0945],[2520.52,-1281.8679],[1820.4585,649.1313],[1482.4655,1279.5645],[293.66113,1533.6682],[-687.0462,1470.443],[-1009.1505,1412.9347],[-605.1824,1115.7291],[-328.33588,459.1352],[-120.980194,193.44507],[129.40796,184.85889],[417.3545,-256.55835],[184.32877,-255.04022],[126.012115,-256.16968],[127.0408,-254.03131],[128.74261,-253.19513],[128.62488,-253.63239],[158.84943,-128.41486],[272.1835,174.11545],[-426.7326,989.0566],[-621.21484,1515.6545],[-1202.3859,1888.2494],[-938.1594,1960.2578],[-623.08624,2135.5952],[386.78516,1972.6626],[1187.2632,1069.788],[2057.0151,4.6694946],[3197.2783,-1909.458],[3221.9053,-2484.1978],[2516.2227,-946.7379],[1962.526,427.1021],[977.3524,1204.6632],[65.89984,1177.2968],[-785.9752,1274.7867],[-380.1455,1378.4185],[-0.89056396,1119.3037],[227.90393,557.9728],[310.9713,365.13495],[218.33978,259.56842],[493.4757,-151.68826],[126.81795,-256.07028],[126.76323,-254.3451],[128.56067,-254.97443],[126.8687,-255.31976],[128.58517,-253.34637],[304.74002,-128.58002],[637.1134,359.95227],[375.60815,1502.9287],[81.28931,1706.862],[-748.87036,2020.6477],[-923.4037,2116.6323],[-77.74048,1771.9326],[765.7223,1215.4872],[1332.4229,449.25256],[2274.8477,114.51434],[3195.7092,-1655.8438],[2630.6794,-1502.6259],[2213.045,-291.464],[1839.1803,637.40186],[570.3979,1527.8802],[-445.06122,1840.7734],[-776.92883,1570.3926],[-174.58752,1706.9268],[273.4415,1243.373],[519.49384,893.34296],[226.05557,672.1957],[147.95465,520.6449],[192.30402,29.673035],[126.15758,-255.08807],[128.9314,-255.83496],[126.3387,-255.16788],[127.653564,-254.76733],[128.50964,-256.4833],[487.70776,-106.19626],[970.94946,691.1269],[864.522,1561.4995],[404.55347,1847.2238],[-712.02814,1988.0776],[-878.1714,2028.9417],[-77.954834,1472.7426],[671.1499,946.8357],[1642.9069,855.74084],[2687.989,289.17993],[2895.7754,-958.84534],[2489.6262,-337.8703],[1480.7665,-0.8305054],[23.130096,1534.176],[-579.5231,2314.5442],[-509.82294,2391.2725],[-286.8546,2072.7622],[133.42993,1529.9294],[459.85913,1383.9368],[528.291,1027.7332],[74.441895,644.6881],[9.036911,59.038254],[129.24673,-176.96295],[126.85075,-253.27188],[129.11914,-255.3475],[129.37488,-256.66272],[129.0296,-255.04202],[128.28539,-254.72491],[593.8093,-26.220795],[925.95056,666.0167],[958.8579,1044.197],[508.79095,1749.8154],[-114.55725,1817.3997],[-751.7501,1582.9159],[-371.4855,1259.1835],[-7.52652,957.1257],[1147.8257,825.5148],[1302.6558,461.93237],[1157.7076,-60.203552],[870.2162,-523.90564],[-217.8649,326.6593],[-733.252,1782.0446],[-836.4681,2533.0327],[-230.91785,2537.7126],[-34.863037,2473.772],[-109.684814,2077.2434],[429.22736,1239.1735],[357.42548,942.51965],[199.47772,642.6007],[269.12692,148.90063],[96.51224,-162.85034],[56.001465,-255.76443],[125.97954,-254.60468],[126.36253,-253.00046],[129.06775,-255.17145],[125.67088,-256.73453],[375.2027,-38.410187],[583.6712,324.77148],[643.4343,828.5713],[276.09695,1110.7405],[-56.70099,1114.4836],[-619.74023,940.4675],[-783.6595,791.0565],[-935.5437,672.2241],[-320.36884,604.4829],[-12.515411,545.8392],[-646.81647,257.72998],[-1131.9834,-236.7464],[-1777.3844,714.49255],[-1839.4966,1680.9185],[-1276.6487,2445.2576],[-545.5104,2316.3298],[-230.27771,1657.133],[-21.356995,1293.3424],[330.6559,1083.0739],[500.6939,510.64355],[556.505,278.5056],[427.1646,-94.67563],[71.713806,-196.544],[1.8039551,-254.59091],[125.64752,-253.83612],[127.604126,-255.06165],[127.80765,-255.82559],[125.682434,-256.62146],[248.43835,-338.6329],[176.35645,-164.03854],[117.8114,111.420166],[56.08023,-50.599823],[-52.81787,281.58734],[-591.1564,156.41797],[-937.22925,-133.46411],[-1268.8455,-116.256714],[-1982.7786,2.861084],[-2414.8892,490.05603],[-2524.0828,420.61072],[-2550.6248,214.19177],[-2481.0925,761.4881],[-1456.9243,979.80853],[-704.049,993.22974],[-311.34766,917.4329],[61.631653,702.0134],[349.21082,247.4198],[414.30988,190.52707],[475.9743,62.18219],[401.27557,-56.856995],[277.5226,-202.18027],[95.77919,-253.39743],[54.836563,-253.94708],[128.20662,-256.07428],[125.87384,-256.815],[128.1659,-253.24011],[128.0381,-255.23456],[133.4574,-382.68454],[162.63037,-260.8378],[-52.050568,-271.92346],[-279.8051,-360.9547],[-389.04785,-238.70691],[-505.34192,-352.32208],[-739.98206,-621.14294],[-1049.2253,-822.4785],[-1539.8268,-624.081],[-2417.8967,69.829834],[-2763.6655,424.66626],[-2479.728,229.07458],[-1601.7673,48.38263],[-532.3031,-253.9856],[-291.73178,-257.5312],[-35.388443,-134.42303],[334.22583,-51.26825],[530.2806,-98.11795],[446.78638,-143.84451],[439.92938,-433.30292],[222.21362,-252.4054],[144.06143,-254.47693],[127.17227,-254.10431],[126.43674,-254.25598],[127.29422,-256.08868],[126.83336,-254.00775],[126.406876,-256.76447],[127.41574,-254.95264],[128.07724,-256.1411],[114.97484,-300.13275],[-1.6263885,-148.52554],[-39.19168,-278.59766],[-191.32227,36.158142],[-105.767334,206.77042],[77.19708,-240.07214],[122.591034,-431.30115],[-304.83875,-379.5205],[-470.7777,-0.43460083],[-219.07678,-185.60126],[-406.7506,-118.68985],[-216.94235,-22.048492],[-41.323715,-121.79172],[286.4792,-346.98608],[331.02838,-370.3164],[327.3764,-175.74646],[300.03793,-83.547485],[265.24164,-169.70044],[338.07867,-380.87134],[144.7544,-256.1491],[127.66763,-255.97437],[127.61075,-253.67883],[127.426025,-253.45636],[129.08743,-253.97049],[125.73653,-256.43723],[128.3245,-256.82916],[126.395966,-253.70761],[128.95807,-254.23352],[126.012695,-255.66748],[127.900635,-255.36603],[127.618774,-255.69916],[126.251205,-253.05762],[128.10223,-254.19034],[129.19745,-255.8374],[127.69833,-256.44824],[127.72969,-255.14465],[127.02606,-255.23608],[127.59424,-255.08356],[128.99997,-253.38779],[126.9998,-253.91345],[129.17719,-255.73007],[143.45029,-253.40253],[235.50351,-254.33365],[254.85739,-253.01666],[181.03699,-256.15466],[129.3717,-254.25446],[128.53732,-254.11368],[128.08224,-256.99084],[125.643906,-255.28787],[126.06032,-255.50949],[127.2563,-256.5412],[126.091705,-255.80731],[127.828186,-256.39313],[126.66135,-255.80356],[125.90961,-253.16675],[127.36409,-256.45392],[127.9476,-256.0692],[127.22089,-254.62714],[127.44119,-254.90466],[127.40817,-256.40042],[127.80112,-254.86456],[129.13297,-253.06763],[125.648575,-255.35303],[128.82166,-253.5686],[129.30444,-256.9021],[129.4982,-256.63223],[129.45541,-255.35815],[126.478806,-255.45428],[127.28085,-255.03784],[128.79868,-253.67178],[128.35034,-253.51038],[127.44368,-254.46393],[126.741684,-254.81265],[126.57889,-256.4579],[126.57721,-253.419],[129.21735,-255.57184],[127.10724,-256.34515],[128.5686,-253.43964],[129.05045,-254.81583],[125.86481,-255.1828],[129.28717,-255.71545],[127.81372,-253.7168],[128.81418,-255.94562],[129.4524,-253.15799],[126.14433,-255.8248],[127.02707,-256.89185],[127.923035,-253.66449],[126.94089,-255.38678],[128.78784,-255.67068],[125.83426,-256.99432],[129.2821,-256.07544],[129.30518,-253.60895],[125.653046,-253.17892],[127.0918,-253.98737],[128.6987,-256.0489],[125.54422,-255.66248],[127.80171,-255.04953],[126.681854,-253.76508],[128.55298,-253.11456],[125.53879,-256.52243],[129.41629,-255.8963],[127.55852,-255.6594],[126.30141,-254.953],[126.345215,-254.61609],[127.20999,-254.99911],[129.31262,-255.0773],[128.85004,-253.99469],[126.7493,-256.9352]]}